1  431.0
2  424.0
3  423.0
4  429.0
5  431.0
6  427.0
7  428.0
8  431.0
9  430.0
10  421.0
11  415.0
12  413.0
13  404.0
14  384.0
15  350.0
16  303.0
17  249.0
18  195.0
19  146.0
20  107.0
21  79.0
22  62.0
23  52.0
24  47.0
25  44.0
26  41.0
27  37.0
28  32.0
29  24.0
30  16.0
31  8.0
32  0.0
33  -7.0
34  -12.0
35  -17.0
36  -20.0
37  -22.0
38  -23.0
39  -22.0
40  -15.0
41  0.0
42  22.0
43  49.0
44  70.0
45  80.0
46  76.0
47  63.0
48  44.0
49  24.0
50  6.0
51  -7.0
52  -16.0
53  -22.0
54  -24.0
55  -23.0
56  -18.0
57  -8.0
58  7.0
59  27.0
60  47.0
61  60.0
62  63.0
63  57.0
64  44.0
65  29.0
66  13.0
67  0.0
68  -10.0
69  -16.0
70  -20.0
71  -22.0
72  -21.0
73  -15.0
74  -2.0
75  18.0
76  42.0
77  61.0
78  69.0
79  66.0
80  55.0
81  38.0
82  20.0
83  4.0
84  -8.0
85  -17.0
86  -22.0
87  -25.0
88  -25.0
89  -22.0
90  -12.0
91  6.0
92  30.0
93  53.0
94  68.0
95  70.0
96  62.0
97  47.0
98  29.0
99  10.0
100  -5.0
101  -16.0
102  -23.0
103  -26.0
104  -27.0
105  -26.0
106  -20.0
107  -6.0
108  15.0
109  40.0
110  61.0
111  71.0
112  67.0
113  54.0
114  35.0
115  15.0
116  -3.0
117  -16.0
118  -26.0
119  -31.0
120  -34.0
121  -33.0
122  -29.0
123  -20.0
124  -2.0
125  21.0
126  43.0
127  58.0
128  61.0
129  54.0
130  41.0
131  23.0
132  6.0
133  -10.0
134  -21.0
135  -27.0
136  -31.0
137  -31.0
138  -27.0
139  -17.0
140  3.0
141  29.0
142  53.0
143  67.0
144  68.0
145  58.0
146  40.0
147  20.0
148  1.0
149  -14.0
150  -24.0
151  -29.0
152  -30.0
153  -27.0
154  -19.0
155  -2.0
156  21.0
157  45.0
158  63.0
159  69.0
160  63.0
161  49.0
162  31.0
163  13.0
164  -4.0
165  -16.0
166  -23.0
167  -27.0
168  -28.0
169  -27.0
170  -20.0
171  -5.0
172  17.0
173  42.0
174  61.0
175  68.0
176  63.0
177  49.0
178  30.0
179  10.0
180  -7.0
181  -21.0
182  -30.0
183  -35.0
184  -36.0
185  -35.0
186  -28.0
187  -12.0
188  12.0
189  39.0
190  59.0
191  67.0
192  61.0
193  47.0
194  26.0
195  6.0
196  -12.0
197  -24.0
198  -31.0
199  -34.0
200  -33.0
201  -27.0
202  -16.0
203  3.0
204  26.0
205  48.0
206  60.0
207  60.0
208  51.0
209  36.0
210  19.0
211  2.0
212  -12.0
213  -22.0
214  -28.0
215  -31.0
216  -33.0
217  -33.0
218  -30.0
219  -18.0
220  3.0
221  31.0
222  56.0
223  71.0
224  72.0
225  62.0
226  43.0
227  21.0
228  1.0
229  -16.0
230  -27.0
231  -33.0
232  -35.0
233  -33.0
234  -27.0
235  -15.0
236  5.0
237  28.0
238  49.0
239  62.0
240  63.0
241  54.0
242  39.0
243  22.0
244  4.0
245  -11.0
246  -22.0
247  -28.0
248  -31.0
249  -31.0
250  -30.0
251  -25.0
252  -13.0
253  6.0
254  30.0
255  51.0
256  63.0
257  62.0
258  51.0
259  34.0
260  15.0
261  -4.0
262  -19.0
263  -30.0
264  -35.0
265  -37.0
266  -35.0
267  -28.0
268  -14.0
269  7.0
270  29.0
271  47.0
272  55.0
273  52.0
274  40.0
275  23.0
276  4.0
277  -12.0
278  -23.0
279  -30.0
280  -32.0
281  -31.0
282  -24.0
283  -9.0
284  12.0
285  35.0
286  54.0
287  61.0
288  57.0
289  44.0
290  24.0
291  3.0
292  -15.0
293  -29.0
294  -37.0
295  -40.0
296  -38.0
297  -32.0
298  -19.0
299  1.0
300  24.0
301  44.0
302  53.0
303  50.0
304  38.0
305  21.0
306  2.0
307  -15.0
308  -28.0
309  -37.0
310  -41.0
311  -41.0
312  -37.0
313  -26.0
314  -7.0
315  18.0
316  42.0
317  58.0
318  62.0
319  53.0
320  38.0
321  18.0
322  -2.0
323  -18.0
324  -29.0
325  -35.0
326  -37.0
327  -36.0
328  -32.0
329  -22.0
330  -3.0
331  21.0
332  45.0
333  61.0
334  64.0
335  55.0
336  40.0
337  22.0
338  4.0
339  -11.0
340  -22.0
341  -30.0
342  -34.0
343  -35.0
344  -34.0
345  -27.0
346  -12.0
347  11.0
348  37.0
349  58.0
350  67.0
351  64.0
352  51.0
353  33.0
354  14.0
355  -4.0
356  -18.0
357  -26.0
358  -29.0
359  -29.0
360  -26.0
361  -19.0
362  -7.0
363  11.0
364  31.0
365  48.0
366  56.0
367  55.0
368  46.0
369  33.0
370  17.0
371  2.0
372  -10.0
373  -19.0
374  -25.0
375  -27.0
376  -28.0
377  -26.0
378  -18.0
379  -2.0
380  22.0
381  47.0
382  66.0
383  73.0
384  67.0
385  53.0
386  34.0
387  13.0
388  -5.0
389  -19.0
390  -29.0
391  -33.0
392  -34.0
393  -31.0
394  -21.0
395  -3.0
396  20.0
397  42.0
398  56.0
399  59.0
400  50.0
401  35.0
402  16.0
403  -2.0
404  -16.0
405  -25.0
406  -31.0
407  -34.0
408  -33.0
409  -29.0
410  -19.0
411  -1.0
412  23.0
413  46.0
414  61.0
415  63.0
416  54.0
417  38.0
418  19.0
419  1.0
420  -13.0
421  -22.0
422  -27.0
423  -29.0
424  -27.0
425  -23.0
426  -13.0
427  2.0
428  23.0
429  44.0
430  59.0
431  63.0
432  57.0
433  45.0
